digraph Tree {
node [shape=box] ;
0 [label="X[27] <= 0.5\ngini = 0.9\nsamples = 1797\nvalue = [178, 182, 177, 183, 181, 182, 181, 179, 174, 180]"] ;
1 [label="X[21] <= 2.5\ngini = 0.547\nsamples = 275\nvalue = [174, 0, 4, 1, 6, 25, 5, 0, 3, 57]"] ;
0 -> 1 [labeldistance=2.5, labelangle=45, headlabel="True"] ;
2 [label="X[16] <= 0.5\ngini = 0.17\nsamples = 188\nvalue = [171, 0, 2, 0, 6, 6, 3, 0, 0, 0]"] ;
1 -> 2 ;
3 [label="X[39] <= 3.5\ngini = 0.719\nsamples = 16\nvalue = [1, 0, 1, 0, 5, 6, 3, 0, 0, 0]"] ;
2 -> 3 ;
4 [label="gini = 0.0\nsamples = 6\nvalue = [0, 0, 0, 0, 0, 6, 0, 0, 0, 0]"] ;
3 -> 4 ;
5 [label="X[1] <= 4.5\ngini = 0.64\nsamples = 10\nvalue = [1, 0, 1, 0, 5, 0, 3, 0, 0, 0]"] ;
3 -> 5 ;
6 [label="gini = 0.0\nsamples = 5\nvalue = [0, 0, 0, 0, 5, 0, 0, 0, 0, 0]"] ;
5 -> 6 ;
7 [label="X[41] <= 3.5\ngini = 0.56\nsamples = 5\nvalue = [1, 0, 1, 0, 0, 0, 3, 0, 0, 0]"] ;
5 -> 7 ;
8 [label="gini = 0.0\nsamples = 3\nvalue = [0, 0, 0, 0, 0, 0, 3, 0, 0, 0]"] ;
7 -> 8 ;
9 [label="X[20] <= 8.0\ngini = 0.5\nsamples = 2\nvalue = [1, 0, 1, 0, 0, 0, 0, 0, 0, 0]"] ;
7 -> 9 ;
10 [label="gini = 0.0\nsamples = 1\nvalue = [1, 0, 0, 0, 0, 0, 0, 0, 0, 0]"] ;
9 -> 10 ;
11 [label="gini = 0.0\nsamples = 1\nvalue = [0, 0, 1, 0, 0, 0, 0, 0, 0, 0]"] ;
9 -> 11 ;
12 [label="X[46] <= 1.5\ngini = 0.023\nsamples = 172\nvalue = [170, 0, 1, 0, 1, 0, 0, 0, 0, 0]"] ;
2 -> 12 ;
13 [label="X[36] <= 2.5\ngini = 0.012\nsamples = 171\nvalue = [170, 0, 0, 0, 1, 0, 0, 0, 0, 0]"] ;
12 -> 13 ;
14 [label="gini = 0.0\nsamples = 1\nvalue = [0, 0, 0, 0, 1, 0, 0, 0, 0, 0]"] ;
13 -> 14 ;
15 [label="gini = 0.0\nsamples = 170\nvalue = [170, 0, 0, 0, 0, 0, 0, 0, 0, 0]"] ;
13 -> 15 ;
16 [label="gini = 0.0\nsamples = 1\nvalue = [0, 0, 1, 0, 0, 0, 0, 0, 0, 0]"] ;
12 -> 16 ;
17 [label="X[16] <= 6.5\ngini = 0.519\nsamples = 87\nvalue = [3, 0, 2, 1, 0, 19, 2, 0, 3, 57]"] ;
1 -> 17 ;
18 [label="X[32] <= 0.5\ngini = 0.384\nsamples = 22\nvalue = [0, 0, 2, 0, 0, 17, 2, 0, 0, 1]"] ;
17 -> 18 ;
19 [label="X[15] <= 12.5\ngini = 0.105\nsamples = 18\nvalue = [0, 0, 0, 0, 0, 17, 0, 0, 0, 1]"] ;
18 -> 19 ;
20 [label="gini = 0.0\nsamples = 17\nvalue = [0, 0, 0, 0, 0, 17, 0, 0, 0, 0]"] ;
19 -> 20 ;
21 [label="gini = 0.0\nsamples = 1\nvalue = [0, 0, 0, 0, 0, 0, 0, 0, 0, 1]"] ;
19 -> 21 ;
22 [label="X[42] <= 14.5\ngini = 0.5\nsamples = 4\nvalue = [0, 0, 2, 0, 0, 0, 2, 0, 0, 0]"] ;
18 -> 22 ;
23 [label="gini = 0.0\nsamples = 2\nvalue = [0, 0, 0, 0, 0, 0, 2, 0, 0, 0]"] ;
22 -> 23 ;
24 [label="gini = 0.0\nsamples = 2\nvalue = [0, 0, 2, 0, 0, 0, 0, 0, 0, 0]"] ;
22 -> 24 ;
25 [label="X[25] <= 7.5\ngini = 0.252\nsamples = 65\nvalue = [3, 0, 0, 1, 0, 2, 0, 0, 3, 56]"] ;
17 -> 25 ;
26 [label="X[5] <= 10.5\ngini = 0.034\nsamples = 57\nvalue = [0, 0, 0, 1, 0, 0, 0, 0, 0, 56]"] ;
25 -> 26 ;
27 [label="gini = 0.0\nsamples = 56\nvalue = [0, 0, 0, 0, 0, 0, 0, 0, 0, 56]"] ;
26 -> 27 ;
28 [label="gini = 0.0\nsamples = 1\nvalue = [0, 0, 0, 1, 0, 0, 0, 0, 0, 0]"] ;
26 -> 28 ;
29 [label="X[21] <= 4.5\ngini = 0.656\nsamples = 8\nvalue = [3, 0, 0, 0, 0, 2, 0, 0, 3, 0]"] ;
25 -> 29 ;
30 [label="gini = 0.0\nsamples = 3\nvalue = [3, 0, 0, 0, 0, 0, 0, 0, 0, 0]"] ;
29 -> 30 ;
31 [label="X[31] <= 7.5\ngini = 0.48\nsamples = 5\nvalue = [0, 0, 0, 0, 0, 2, 0, 0, 3, 0]"] ;
29 -> 31 ;
32 [label="gini = 0.0\nsamples = 2\nvalue = [0, 0, 0, 0, 0, 2, 0, 0, 0, 0]"] ;
31 -> 32 ;
33 [label="gini = 0.0\nsamples = 3\nvalue = [0, 0, 0, 0, 0, 0, 0, 0, 3, 0]"] ;
31 -> 33 ;
34 [label="X[16] <= 0.5\ngini = 0.888\nsamples = 1522\nvalue = [4, 182, 173, 182, 175, 157, 176, 179, 171, 123]"] ;
0 -> 34 [labeldistance=2.5, labelangle=-45, headlabel="False"] ;
35 [label="X[31] <= 8.5\ngini = 0.74\nsamples = 464\nvalue = [0, 43, 46, 15, 33, 145, 172, 6, 3, 1]"] ;
34 -> 35 ;
36 [label="X[3] <= 1.5\ngini = 0.621\nsamples = 246\nvalue = [0, 35, 35, 15, 7, 142, 3, 5, 3, 1]"] ;
35 -> 36 ;
37 [label="X[14] <= 13.5\ngini = 0.735\nsamples = 101\nvalue = [0, 35, 35, 14, 5, 2, 3, 4, 2, 1]"] ;
36 -> 37 ;
38 [label="X[28] <= 4.0\ngini = 0.651\nsamples = 61\nvalue = [0, 3, 33, 13, 2, 2, 1, 4, 2, 1]"] ;
37 -> 38 ;
39 [label="X[41] <= 0.5\ngini = 0.197\nsamples = 37\nvalue = [0, 3, 33, 0, 0, 0, 0, 0, 1, 0]"] ;
38 -> 39 ;
40 [label="X[38] <= 7.0\ngini = 0.375\nsamples = 4\nvalue = [0, 3, 0, 0, 0, 0, 0, 0, 1, 0]"] ;
39 -> 40 ;
41 [label="gini = 0.0\nsamples = 1\nvalue = [0, 0, 0, 0, 0, 0, 0, 0, 1, 0]"] ;
40 -> 41 ;
42 [label="gini = 0.0\nsamples = 3\nvalue = [0, 3, 0, 0, 0, 0, 0, 0, 0, 0]"] ;
40 -> 42 ;
43 [label="gini = 0.0\nsamples = 33\nvalue = [0, 0, 33, 0, 0, 0, 0, 0, 0, 0]"] ;
39 -> 43 ;
44 [label="X[32] <= 5.5\ngini = 0.66\nsamples = 24\nvalue = [0, 0, 0, 13, 2, 2, 1, 4, 1, 1]"] ;
38 -> 44 ;
45 [label="X[19] <= 12.5\ngini = 0.32\nsamples = 16\nvalue = [0, 0, 0, 13, 0, 2, 0, 0, 0, 1]"] ;
44 -> 45 ;
46 [label="gini = 0.0\nsamples = 13\nvalue = [0, 0, 0, 13, 0, 0, 0, 0, 0, 0]"] ;
45 -> 46 ;
47 [label="X[35] <= 6.5\ngini = 0.444\nsamples = 3\nvalue = [0, 0, 0, 0, 0, 2, 0, 0, 0, 1]"] ;
45 -> 47 ;
48 [label="gini = 0.0\nsamples = 1\nvalue = [0, 0, 0, 0, 0, 0, 0, 0, 0, 1]"] ;
47 -> 48 ;
49 [label="gini = 0.0\nsamples = 2\nvalue = [0, 0, 0, 0, 0, 2, 0, 0, 0, 0]"] ;
47 -> 49 ;
50 [label="X[34] <= 6.5\ngini = 0.656\nsamples = 8\nvalue = [0, 0, 0, 0, 2, 0, 1, 4, 1, 0]"] ;
44 -> 50 ;
51 [label="gini = 0.0\nsamples = 4\nvalue = [0, 0, 0, 0, 0, 0, 0, 4, 0, 0]"] ;
50 -> 51 ;
52 [label="X[37] <= 12.5\ngini = 0.625\nsamples = 4\nvalue = [0, 0, 0, 0, 2, 0, 1, 0, 1, 0]"] ;
50 -> 52 ;
53 [label="gini = 0.0\nsamples = 2\nvalue = [0, 0, 0, 0, 2, 0, 0, 0, 0, 0]"] ;
52 -> 53 ;
54 [label="X[15] <= 5.0\ngini = 0.5\nsamples = 2\nvalue = [0, 0, 0, 0, 0, 0, 1, 0, 1, 0]"] ;
52 -> 54 ;
55 [label="gini = 0.0\nsamples = 1\nvalue = [0, 0, 0, 0, 0, 0, 1, 0, 0, 0]"] ;
54 -> 55 ;
56 [label="gini = 0.0\nsamples = 1\nvalue = [0, 0, 0, 0, 0, 0, 0, 0, 1, 0]"] ;
54 -> 56 ;
57 [label="X[35] <= 0.5\ngini = 0.349\nsamples = 40\nvalue = [0, 32, 2, 1, 3, 0, 2, 0, 0, 0]"] ;
37 -> 57 ;
58 [label="X[20] <= 10.5\ngini = 0.112\nsamples = 34\nvalue = [0, 32, 1, 0, 1, 0, 0, 0, 0, 0]"] ;
57 -> 58 ;
59 [label="X[21] <= 8.5\ngini = 0.5\nsamples = 2\nvalue = [0, 0, 1, 0, 1, 0, 0, 0, 0, 0]"] ;
58 -> 59 ;
60 [label="gini = 0.0\nsamples = 1\nvalue = [0, 0, 0, 0, 1, 0, 0, 0, 0, 0]"] ;
59 -> 60 ;
61 [label="gini = 0.0\nsamples = 1\nvalue = [0, 0, 1, 0, 0, 0, 0, 0, 0, 0]"] ;
59 -> 61 ;
62 [label="gini = 0.0\nsamples = 32\nvalue = [0, 32, 0, 0, 0, 0, 0, 0, 0, 0]"] ;
58 -> 62 ;
63 [label="X[37] <= 15.5\ngini = 0.722\nsamples = 6\nvalue = [0, 0, 1, 1, 2, 0, 2, 0, 0, 0]"] ;
57 -> 63 ;
64 [label="X[40] <= 5.5\ngini = 0.625\nsamples = 4\nvalue = [0, 0, 1, 1, 2, 0, 0, 0, 0, 0]"] ;
63 -> 64 ;
65 [label="gini = 0.0\nsamples = 2\nvalue = [0, 0, 0, 0, 2, 0, 0, 0, 0, 0]"] ;
64 -> 65 ;
66 [label="X[36] <= 7.5\ngini = 0.5\nsamples = 2\nvalue = [0, 0, 1, 1, 0, 0, 0, 0, 0, 0]"] ;
64 -> 66 ;
67 [label="gini = 0.0\nsamples = 1\nvalue = [0, 0, 0, 1, 0, 0, 0, 0, 0, 0]"] ;
66 -> 67 ;
68 [label="gini = 0.0\nsamples = 1\nvalue = [0, 0, 1, 0, 0, 0, 0, 0, 0, 0]"] ;
66 -> 68 ;
69 [label="gini = 0.0\nsamples = 2\nvalue = [0, 0, 0, 0, 0, 0, 2, 0, 0, 0]"] ;
63 -> 69 ;
70 [label="X[13] <= 4.5\ngini = 0.067\nsamples = 145\nvalue = [0, 0, 0, 1, 2, 140, 0, 1, 1, 0]"] ;
36 -> 70 ;
71 [label="X[43] <= 12.0\ngini = 0.667\nsamples = 3\nvalue = [0, 0, 0, 1, 1, 0, 0, 1, 0, 0]"] ;
70 -> 71 ;
72 [label="gini = 0.0\nsamples = 1\nvalue = [0, 0, 0, 0, 0, 0, 0, 1, 0, 0]"] ;
71 -> 72 ;
73 [label="X[8] <= 14.5\ngini = 0.5\nsamples = 2\nvalue = [0, 0, 0, 1, 1, 0, 0, 0, 0, 0]"] ;
71 -> 73 ;
74 [label="gini = 0.0\nsamples = 1\nvalue = [0, 0, 0, 0, 1, 0, 0, 0, 0, 0]"] ;
73 -> 74 ;
75 [label="gini = 0.0\nsamples = 1\nvalue = [0, 0, 0, 1, 0, 0, 0, 0, 0, 0]"] ;
73 -> 75 ;
76 [label="X[5] <= 15.0\ngini = 0.028\nsamples = 142\nvalue = [0, 0, 0, 0, 1, 140, 0, 0, 1, 0]"] ;
70 -> 76 ;
77 [label="X[17] <= 0.5\ngini = 0.014\nsamples = 141\nvalue = [0, 0, 0, 0, 1, 140, 0, 0, 0, 0]"] ;
76 -> 77 ;
78 [label="gini = 0.0\nsamples = 140\nvalue = [0, 0, 0, 0, 0, 140, 0, 0, 0, 0]"] ;
77 -> 78 ;
79 [label="gini = 0.0\nsamples = 1\nvalue = [0, 0, 0, 0, 1, 0, 0, 0, 0, 0]"] ;
77 -> 79 ;
80 [label="gini = 0.0\nsamples = 1\nvalue = [0, 0, 0, 0, 0, 0, 0, 0, 1, 0]"] ;
76 -> 80 ;
81 [label="X[40] <= 1.5\ngini = 0.381\nsamples = 218\nvalue = [0, 8, 11, 0, 26, 3, 169, 1, 0, 0]"] ;
35 -> 81 ;
82 [label="X[6] <= 5.5\ngini = 0.636\nsamples = 47\nvalue = [0, 8, 2, 0, 26, 3, 7, 1, 0, 0]"] ;
81 -> 82 ;
83 [label="X[31] <= 11.5\ngini = 0.145\nsamples = 26\nvalue = [0, 1, 0, 0, 24, 0, 1, 0, 0, 0]"] ;
82 -> 83 ;
84 [label="X[34] <= 6.5\ngini = 0.5\nsamples = 2\nvalue = [0, 1, 0, 0, 0, 0, 1, 0, 0, 0]"] ;
83 -> 84 ;
85 [label="gini = 0.0\nsamples = 1\nvalue = [0, 1, 0, 0, 0, 0, 0, 0, 0, 0]"] ;
84 -> 85 ;
86 [label="gini = 0.0\nsamples = 1\nvalue = [0, 0, 0, 0, 0, 0, 1, 0, 0, 0]"] ;
84 -> 86 ;
87 [label="gini = 0.0\nsamples = 24\nvalue = [0, 0, 0, 0, 24, 0, 0, 0, 0, 0]"] ;
83 -> 87 ;
88 [label="X[34] <= 1.5\ngini = 0.766\nsamples = 21\nvalue = [0, 7, 2, 0, 2, 3, 6, 1, 0, 0]"] ;
82 -> 88 ;
89 [label="X[25] <= 5.0\ngini = 0.346\nsamples = 9\nvalue = [0, 7, 2, 0, 0, 0, 0, 0, 0, 0]"] ;
88 -> 89 ;
90 [label="gini = 0.0\nsamples = 2\nvalue = [0, 0, 2, 0, 0, 0, 0, 0, 0, 0]"] ;
89 -> 90 ;
91 [label="gini = 0.0\nsamples = 7\nvalue = [0, 7, 0, 0, 0, 0, 0, 0, 0, 0]"] ;
89 -> 91 ;
92 [label="X[36] <= 6.0\ngini = 0.653\nsamples = 12\nvalue = [0, 0, 0, 0, 2, 3, 6, 1, 0, 0]"] ;
88 -> 92 ;
93 [label="X[30] <= 6.5\ngini = 0.48\nsamples = 5\nvalue = [0, 0, 0, 0, 2, 3, 0, 0, 0, 0]"] ;
92 -> 93 ;
94 [label="gini = 0.0\nsamples = 3\nvalue = [0, 0, 0, 0, 0, 3, 0, 0, 0, 0]"] ;
93 -> 94 ;
95 [label="gini = 0.0\nsamples = 2\nvalue = [0, 0, 0, 0, 2, 0, 0, 0, 0, 0]"] ;
93 -> 95 ;
96 [label="X[2] <= 12.0\ngini = 0.245\nsamples = 7\nvalue = [0, 0, 0, 0, 0, 0, 6, 1, 0, 0]"] ;
92 -> 96 ;
97 [label="gini = 0.0\nsamples = 1\nvalue = [0, 0, 0, 0, 0, 0, 0, 1, 0, 0]"] ;
96 -> 97 ;
98 [label="gini = 0.0\nsamples = 6\nvalue = [0, 0, 0, 0, 0, 0, 6, 0, 0, 0]"] ;
96 -> 98 ;
99 [label="X[5] <= 3.0\ngini = 0.1\nsamples = 171\nvalue = [0, 0, 9, 0, 0, 0, 162, 0, 0, 0]"] ;
81 -> 99 ;
100 [label="gini = 0.0\nsamples = 162\nvalue = [0, 0, 0, 0, 0, 0, 162, 0, 0, 0]"] ;
99 -> 100 ;
101 [label="gini = 0.0\nsamples = 9\nvalue = [0, 0, 9, 0, 0, 0, 0, 0, 0, 0]"] ;
99 -> 101 ;
102 [label="X[43] <= 7.5\ngini = 0.86\nsamples = 1058\nvalue = [4, 139, 127, 167, 142, 12, 4, 173, 168, 122]"] ;
34 -> 102 ;
103 [label="X[3] <= 0.5\ngini = 0.552\nsamples = 247\nvalue = [0, 11, 6, 10, 28, 4, 0, 161, 11, 16]"] ;
102 -> 103 ;
104 [label="X[8] <= 7.5\ngini = 0.627\nsamples = 45\nvalue = [0, 2, 5, 0, 26, 2, 0, 6, 3, 1]"] ;
103 -> 104 ;
105 [label="gini = 0.0\nsamples = 26\nvalue = [0, 0, 0, 0, 26, 0, 0, 0, 0, 0]"] ;
104 -> 105 ;
106 [label="X[39] <= 10.5\ngini = 0.781\nsamples = 19\nvalue = [0, 2, 5, 0, 0, 2, 0, 6, 3, 1]"] ;
104 -> 106 ;
107 [label="X[43] <= 1.5\ngini = 0.698\nsamples = 13\nvalue = [0, 1, 0, 0, 0, 2, 0, 6, 3, 1]"] ;
106 -> 107 ;
108 [label="gini = 0.0\nsamples = 6\nvalue = [0, 0, 0, 0, 0, 0, 0, 6, 0, 0]"] ;
107 -> 108 ;
109 [label="X[36] <= 9.0\ngini = 0.694\nsamples = 7\nvalue = [0, 1, 0, 0, 0, 2, 0, 0, 3, 1]"] ;
107 -> 109 ;
110 [label="X[2] <= 3.5\ngini = 0.625\nsamples = 4\nvalue = [0, 1, 0, 0, 0, 2, 0, 0, 0, 1]"] ;
109 -> 110 ;
111 [label="gini = 0.0\nsamples = 2\nvalue = [0, 0, 0, 0, 0, 2, 0, 0, 0, 0]"] ;
110 -> 111 ;
112 [label="X[46] <= 0.5\ngini = 0.5\nsamples = 2\nvalue = [0, 1, 0, 0, 0, 0, 0, 0, 0, 1]"] ;
110 -> 112 ;
113 [label="gini = 0.0\nsamples = 1\nvalue = [0, 1, 0, 0, 0, 0, 0, 0, 0, 0]"] ;
112 -> 113 ;
114 [label="gini = 0.0\nsamples = 1\nvalue = [0, 0, 0, 0, 0, 0, 0, 0, 0, 1]"] ;
112 -> 114 ;
115 [label="gini = 0.0\nsamples = 3\nvalue = [0, 0, 0, 0, 0, 0, 0, 0, 3, 0]"] ;
109 -> 115 ;
116 [label="X[42] <= 8.0\ngini = 0.278\nsamples = 6\nvalue = [0, 1, 5, 0, 0, 0, 0, 0, 0, 0]"] ;
106 -> 116 ;
117 [label="gini = 0.0\nsamples = 1\nvalue = [0, 1, 0, 0, 0, 0, 0, 0, 0, 0]"] ;
116 -> 117 ;
118 [label="gini = 0.0\nsamples = 5\nvalue = [0, 0, 5, 0, 0, 0, 0, 0, 0, 0]"] ;
116 -> 118 ;
119 [label="X[39] <= 3.5\ngini = 0.399\nsamples = 202\nvalue = [0, 9, 1, 10, 2, 2, 0, 155, 8, 15]"] ;
103 -> 119 ;
120 [label="X[28] <= 0.5\ngini = 0.269\nsamples = 182\nvalue = [0, 3, 0, 4, 2, 1, 0, 155, 6, 11]"] ;
119 -> 120 ;
121 [label="X[38] <= 1.0\ngini = 0.79\nsamples = 18\nvalue = [0, 3, 0, 3, 0, 0, 0, 4, 5, 3]"] ;
120 -> 121 ;
122 [label="gini = 0.0\nsamples = 4\nvalue = [0, 0, 0, 0, 0, 0, 0, 4, 0, 0]"] ;
121 -> 122 ;
123 [label="X[15] <= 11.5\ngini = 0.735\nsamples = 14\nvalue = [0, 3, 0, 3, 0, 0, 0, 0, 5, 3]"] ;
121 -> 123 ;
124 [label="X[4] <= 3.5\ngini = 0.278\nsamples = 6\nvalue = [0, 0, 0, 0, 0, 0, 0, 0, 5, 1]"] ;
123 -> 124 ;
125 [label="gini = 0.0\nsamples = 5\nvalue = [0, 0, 0, 0, 0, 0, 0, 0, 5, 0]"] ;
124 -> 125 ;
126 [label="gini = 0.0\nsamples = 1\nvalue = [0, 0, 0, 0, 0, 0, 0, 0, 0, 1]"] ;
124 -> 126 ;
127 [label="X[36] <= 8.0\ngini = 0.656\nsamples = 8\nvalue = [0, 3, 0, 3, 0, 0, 0, 0, 0, 2]"] ;
123 -> 127 ;
128 [label="X[14] <= 8.5\ngini = 0.48\nsamples = 5\nvalue = [0, 0, 0, 3, 0, 0, 0, 0, 0, 2]"] ;
127 -> 128 ;
129 [label="gini = 0.0\nsamples = 3\nvalue = [0, 0, 0, 3, 0, 0, 0, 0, 0, 0]"] ;
128 -> 129 ;
130 [label="gini = 0.0\nsamples = 2\nvalue = [0, 0, 0, 0, 0, 0, 0, 0, 0, 2]"] ;
128 -> 130 ;
131 [label="gini = 0.0\nsamples = 3\nvalue = [0, 3, 0, 0, 0, 0, 0, 0, 0, 0]"] ;
127 -> 131 ;
132 [label="X[19] <= 12.5\ngini = 0.15\nsamples = 164\nvalue = [0, 0, 0, 1, 2, 1, 0, 151, 1, 8]"] ;
120 -> 132 ;
133 [label="X[37] <= 2.5\ngini = 0.028\nsamples = 142\nvalue = [0, 0, 0, 1, 0, 0, 0, 140, 1, 0]"] ;
132 -> 133 ;
134 [label="gini = 0.0\nsamples = 1\nvalue = [0, 0, 0, 1, 0, 0, 0, 0, 0, 0]"] ;
133 -> 134 ;
135 [label="X[14] <= 12.5\ngini = 0.014\nsamples = 141\nvalue = [0, 0, 0, 0, 0, 0, 0, 140, 1, 0]"] ;
133 -> 135 ;
136 [label="gini = 0.0\nsamples = 140\nvalue = [0, 0, 0, 0, 0, 0, 0, 140, 0, 0]"] ;
135 -> 136 ;
137 [label="gini = 0.0\nsamples = 1\nvalue = [0, 0, 0, 0, 0, 0, 0, 0, 1, 0]"] ;
135 -> 137 ;
138 [label="X[20] <= 5.5\ngini = 0.607\nsamples = 22\nvalue = [0, 0, 0, 0, 2, 1, 0, 11, 0, 8]"] ;
132 -> 138 ;
139 [label="gini = 0.0\nsamples = 10\nvalue = [0, 0, 0, 0, 0, 0, 0, 10, 0, 0]"] ;
138 -> 139 ;
140 [label="X[23] <= 10.0\ngini = 0.514\nsamples = 12\nvalue = [0, 0, 0, 0, 2, 1, 0, 1, 0, 8]"] ;
138 -> 140 ;
141 [label="X[34] <= 7.5\ngini = 0.198\nsamples = 9\nvalue = [0, 0, 0, 0, 0, 1, 0, 0, 0, 8]"] ;
140 -> 141 ;
142 [label="gini = 0.0\nsamples = 8\nvalue = [0, 0, 0, 0, 0, 0, 0, 0, 0, 8]"] ;
141 -> 142 ;
143 [label="gini = 0.0\nsamples = 1\nvalue = [0, 0, 0, 0, 0, 1, 0, 0, 0, 0]"] ;
141 -> 143 ;
144 [label="X[15] <= 11.5\ngini = 0.444\nsamples = 3\nvalue = [0, 0, 0, 0, 2, 0, 0, 1, 0, 0]"] ;
140 -> 144 ;
145 [label="gini = 0.0\nsamples = 2\nvalue = [0, 0, 0, 0, 2, 0, 0, 0, 0, 0]"] ;
144 -> 145 ;
146 [label="gini = 0.0\nsamples = 1\nvalue = [0, 0, 0, 0, 0, 0, 0, 1, 0, 0]"] ;
144 -> 146 ;
147 [label="X[45] <= 0.5\ngini = 0.765\nsamples = 20\nvalue = [0, 6, 1, 6, 0, 1, 0, 0, 2, 4]"] ;
119 -> 147 ;
148 [label="X[13] <= 1.0\ngini = 0.704\nsamples = 14\nvalue = [0, 0, 1, 6, 0, 1, 0, 0, 2, 4]"] ;
147 -> 148 ;
149 [label="gini = 0.0\nsamples = 6\nvalue = [0, 0, 0, 6, 0, 0, 0, 0, 0, 0]"] ;
148 -> 149 ;
150 [label="X[6] <= 13.0\ngini = 0.656\nsamples = 8\nvalue = [0, 0, 1, 0, 0, 1, 0, 0, 2, 4]"] ;
148 -> 150 ;
151 [label="gini = 0.0\nsamples = 4\nvalue = [0, 0, 0, 0, 0, 0, 0, 0, 0, 4]"] ;
150 -> 151 ;
152 [label="X[21] <= 14.0\ngini = 0.625\nsamples = 4\nvalue = [0, 0, 1, 0, 0, 1, 0, 0, 2, 0]"] ;
150 -> 152 ;
153 [label="X[27] <= 8.0\ngini = 0.5\nsamples = 2\nvalue = [0, 0, 1, 0, 0, 1, 0, 0, 0, 0]"] ;
152 -> 153 ;
154 [label="gini = 0.0\nsamples = 1\nvalue = [0, 0, 0, 0, 0, 1, 0, 0, 0, 0]"] ;
153 -> 154 ;
155 [label="gini = 0.0\nsamples = 1\nvalue = [0, 0, 1, 0, 0, 0, 0, 0, 0, 0]"] ;
153 -> 155 ;
156 [label="gini = 0.0\nsamples = 2\nvalue = [0, 0, 0, 0, 0, 0, 0, 0, 2, 0]"] ;
152 -> 156 ;
157 [label="gini = 0.0\nsamples = 6\nvalue = [0, 6, 0, 0, 0, 0, 0, 0, 0, 0]"] ;
147 -> 157 ;
158 [label="X[24] <= 3.5\ngini = 0.841\nsamples = 811\nvalue = [4, 128, 121, 157, 114, 8, 4, 12, 157, 106]"] ;
102 -> 158 ;
159 [label="X[32] <= 1.5\ngini = 0.808\nsamples = 666\nvalue = [2, 107, 120, 156, 4, 7, 1, 10, 154, 105]"] ;
158 -> 159 ;
160 [label="X[22] <= 12.5\ngini = 0.636\nsamples = 281\nvalue = [0, 19, 6, 138, 0, 7, 0, 0, 16, 95]"] ;
159 -> 160 ;
161 [label="X[25] <= 3.5\ngini = 0.342\nsamples = 163\nvalue = [0, 3, 2, 131, 0, 3, 0, 0, 14, 10]"] ;
160 -> 161 ;
162 [label="X[19] <= 8.5\ngini = 0.149\nsamples = 140\nvalue = [0, 1, 2, 129, 0, 3, 0, 0, 0, 5]"] ;
161 -> 162 ;
163 [label="X[21] <= 7.5\ngini = 0.073\nsamples = 133\nvalue = [0, 1, 2, 128, 0, 0, 0, 0, 0, 2]"] ;
162 -> 163 ;
164 [label="gini = 0.0\nsamples = 2\nvalue = [0, 0, 2, 0, 0, 0, 0, 0, 0, 0]"] ;
163 -> 164 ;
165 [label="X[14] <= 14.5\ngini = 0.045\nsamples = 131\nvalue = [0, 1, 0, 128, 0, 0, 0, 0, 0, 2]"] ;
163 -> 165 ;
166 [label="X[2] <= 7.5\ngini = 0.015\nsamples = 129\nvalue = [0, 0, 0, 128, 0, 0, 0, 0, 0, 1]"] ;
165 -> 166 ;
167 [label="X[40] <= 0.5\ngini = 0.375\nsamples = 4\nvalue = [0, 0, 0, 3, 0, 0, 0, 0, 0, 1]"] ;
166 -> 167 ;
168 [label="gini = 0.0\nsamples = 1\nvalue = [0, 0, 0, 0, 0, 0, 0, 0, 0, 1]"] ;
167 -> 168 ;
169 [label="gini = 0.0\nsamples = 3\nvalue = [0, 0, 0, 3, 0, 0, 0, 0, 0, 0]"] ;
167 -> 169 ;
170 [label="gini = 0.0\nsamples = 125\nvalue = [0, 0, 0, 125, 0, 0, 0, 0, 0, 0]"] ;
166 -> 170 ;
171 [label="X[45] <= 8.0\ngini = 0.5\nsamples = 2\nvalue = [0, 1, 0, 0, 0, 0, 0, 0, 0, 1]"] ;
165 -> 171 ;
172 [label="gini = 0.0\nsamples = 1\nvalue = [0, 0, 0, 0, 0, 0, 0, 0, 0, 1]"] ;
171 -> 172 ;
173 [label="gini = 0.0\nsamples = 1\nvalue = [0, 1, 0, 0, 0, 0, 0, 0, 0, 0]"] ;
171 -> 173 ;
174 [label="X[41] <= 8.5\ngini = 0.612\nsamples = 7\nvalue = [0, 0, 0, 1, 0, 3, 0, 0, 0, 3]"] ;
162 -> 174 ;
175 [label="X[7] <= 12.5\ngini = 0.375\nsamples = 4\nvalue = [0, 0, 0, 1, 0, 0, 0, 0, 0, 3]"] ;
174 -> 175 ;
176 [label="gini = 0.0\nsamples = 3\nvalue = [0, 0, 0, 0, 0, 0, 0, 0, 0, 3]"] ;
175 -> 176 ;
177 [label="gini = 0.0\nsamples = 1\nvalue = [0, 0, 0, 1, 0, 0, 0, 0, 0, 0]"] ;
175 -> 177 ;
178 [label="gini = 0.0\nsamples = 3\nvalue = [0, 0, 0, 0, 0, 3, 0, 0, 0, 0]"] ;
174 -> 178 ;
179 [label="X[31] <= 3.5\ngini = 0.567\nsamples = 23\nvalue = [0, 2, 0, 2, 0, 0, 0, 0, 14, 5]"] ;
161 -> 179 ;
180 [label="X[8] <= 13.5\ngini = 0.593\nsamples = 9\nvalue = [0, 2, 0, 2, 0, 0, 0, 0, 0, 5]"] ;
179 -> 180 ;
181 [label="gini = 0.0\nsamples = 5\nvalue = [0, 0, 0, 0, 0, 0, 0, 0, 0, 5]"] ;
180 -> 181 ;
182 [label="X[28] <= 8.0\ngini = 0.5\nsamples = 4\nvalue = [0, 2, 0, 2, 0, 0, 0, 0, 0, 0]"] ;
180 -> 182 ;
183 [label="gini = 0.0\nsamples = 2\nvalue = [0, 0, 0, 2, 0, 0, 0, 0, 0, 0]"] ;
182 -> 183 ;
184 [label="gini = 0.0\nsamples = 2\nvalue = [0, 2, 0, 0, 0, 0, 0, 0, 0, 0]"] ;
182 -> 184 ;
185 [label="gini = 0.0\nsamples = 14\nvalue = [0, 0, 0, 0, 0, 0, 0, 0, 14, 0]"] ;
179 -> 185 ;
186 [label="X[26] <= 1.5\ngini = 0.457\nsamples = 118\nvalue = [0, 16, 4, 7, 0, 4, 0, 0, 2, 85]"] ;
160 -> 186 ;
187 [label="X[1] <= 3.5\ngini = 0.711\nsamples = 40\nvalue = [0, 15, 4, 4, 0, 3, 0, 0, 0, 14]"] ;
186 -> 187 ;
188 [label="gini = 0.0\nsamples = 15\nvalue = [0, 15, 0, 0, 0, 0, 0, 0, 0, 0]"] ;
187 -> 188 ;
189 [label="X[20] <= 7.5\ngini = 0.621\nsamples = 25\nvalue = [0, 0, 4, 4, 0, 3, 0, 0, 0, 14]"] ;
187 -> 189 ;
190 [label="X[35] <= 6.0\ngini = 0.66\nsamples = 10\nvalue = [0, 0, 4, 4, 0, 1, 0, 0, 0, 1]"] ;
189 -> 190 ;
191 [label="X[15] <= 10.0\ngini = 0.5\nsamples = 6\nvalue = [0, 0, 4, 0, 0, 1, 0, 0, 0, 1]"] ;
190 -> 191 ;
192 [label="gini = 0.0\nsamples = 4\nvalue = [0, 0, 4, 0, 0, 0, 0, 0, 0, 0]"] ;
191 -> 192 ;
193 [label="X[5] <= 2.0\ngini = 0.5\nsamples = 2\nvalue = [0, 0, 0, 0, 0, 1, 0, 0, 0, 1]"] ;
191 -> 193 ;
194 [label="gini = 0.0\nsamples = 1\nvalue = [0, 0, 0, 0, 0, 1, 0, 0, 0, 0]"] ;
193 -> 194 ;
195 [label="gini = 0.0\nsamples = 1\nvalue = [0, 0, 0, 0, 0, 0, 0, 0, 0, 1]"] ;
193 -> 195 ;
196 [label="gini = 0.0\nsamples = 4\nvalue = [0, 0, 0, 4, 0, 0, 0, 0, 0, 0]"] ;
190 -> 196 ;
197 [label="X[41] <= 12.5\ngini = 0.231\nsamples = 15\nvalue = [0, 0, 0, 0, 0, 2, 0, 0, 0, 13]"] ;
189 -> 197 ;
198 [label="gini = 0.0\nsamples = 13\nvalue = [0, 0, 0, 0, 0, 0, 0, 0, 0, 13]"] ;
197 -> 198 ;
199 [label="gini = 0.0\nsamples = 2\nvalue = [0, 0, 0, 0, 0, 2, 0, 0, 0, 0]"] ;
197 -> 199 ;
200 [label="X[19] <= 2.5\ngini = 0.169\nsamples = 78\nvalue = [0, 1, 0, 3, 0, 1, 0, 0, 2, 71]"] ;
186 -> 200 ;
201 [label="gini = 0.0\nsamples = 3\nvalue = [0, 0, 0, 3, 0, 0, 0, 0, 0, 0]"] ;
200 -> 201 ;
202 [label="X[16] <= 10.5\ngini = 0.103\nsamples = 75\nvalue = [0, 1, 0, 0, 0, 1, 0, 0, 2, 71]"] ;
200 -> 202 ;
203 [label="X[18] <= 3.5\ngini = 0.64\nsamples = 5\nvalue = [0, 0, 0, 0, 0, 1, 0, 0, 2, 2]"] ;
202 -> 203 ;
204 [label="gini = 0.0\nsamples = 2\nvalue = [0, 0, 0, 0, 0, 0, 0, 0, 2, 0]"] ;
203 -> 204 ;
205 [label="X[13] <= 14.5\ngini = 0.444\nsamples = 3\nvalue = [0, 0, 0, 0, 0, 1, 0, 0, 0, 2]"] ;
203 -> 205 ;
206 [label="gini = 0.0\nsamples = 2\nvalue = [0, 0, 0, 0, 0, 0, 0, 0, 0, 2]"] ;
205 -> 206 ;
207 [label="gini = 0.0\nsamples = 1\nvalue = [0, 0, 0, 0, 0, 1, 0, 0, 0, 0]"] ;
205 -> 207 ;
208 [label="X[7] <= 1.0\ngini = 0.028\nsamples = 70\nvalue = [0, 1, 0, 0, 0, 0, 0, 0, 0, 69]"] ;
202 -> 208 ;
209 [label="gini = 0.0\nsamples = 1\nvalue = [0, 1, 0, 0, 0, 0, 0, 0, 0, 0]"] ;
208 -> 209 ;
210 [label="gini = 0.0\nsamples = 69\nvalue = [0, 0, 0, 0, 0, 0, 0, 0, 0, 69]"] ;
208 -> 210 ;
211 [label="X[20] <= 7.5\ngini = 0.728\nsamples = 385\nvalue = [2, 88, 114, 18, 4, 0, 1, 10, 138, 10]"] ;
159 -> 211 ;
212 [label="X[25] <= 3.5\ngini = 0.398\nsamples = 121\nvalue = [1, 2, 93, 2, 2, 0, 0, 7, 9, 5]"] ;
211 -> 212 ;
213 [label="X[36] <= 0.5\ngini = 0.121\nsamples = 95\nvalue = [0, 2, 89, 2, 0, 0, 0, 2, 0, 0]"] ;
212 -> 213 ;
214 [label="X[8] <= 14.5\ngini = 0.722\nsamples = 6\nvalue = [0, 2, 1, 1, 0, 0, 0, 2, 0, 0]"] ;
213 -> 214 ;
215 [label="X[10] <= 3.5\ngini = 0.625\nsamples = 4\nvalue = [0, 0, 1, 1, 0, 0, 0, 2, 0, 0]"] ;
214 -> 215 ;
216 [label="X[11] <= 0.5\ngini = 0.5\nsamples = 2\nvalue = [0, 0, 1, 1, 0, 0, 0, 0, 0, 0]"] ;
215 -> 216 ;
217 [label="gini = 0.0\nsamples = 1\nvalue = [0, 0, 0, 1, 0, 0, 0, 0, 0, 0]"] ;
216 -> 217 ;
218 [label="gini = 0.0\nsamples = 1\nvalue = [0, 0, 1, 0, 0, 0, 0, 0, 0, 0]"] ;
216 -> 218 ;
219 [label="gini = 0.0\nsamples = 2\nvalue = [0, 0, 0, 0, 0, 0, 0, 2, 0, 0]"] ;
215 -> 219 ;
220 [label="gini = 0.0\nsamples = 2\nvalue = [0, 2, 0, 0, 0, 0, 0, 0, 0, 0]"] ;
214 -> 220 ;
221 [label="X[34] <= 14.0\ngini = 0.022\nsamples = 89\nvalue = [0, 0, 88, 1, 0, 0, 0, 0, 0, 0]"] ;
213 -> 221 ;
222 [label="gini = 0.0\nsamples = 88\nvalue = [0, 0, 88, 0, 0, 0, 0, 0, 0, 0]"] ;
221 -> 222 ;
223 [label="gini = 0.0\nsamples = 1\nvalue = [0, 0, 0, 1, 0, 0, 0, 0, 0, 0]"] ;
221 -> 223 ;
224 [label="X[28] <= 12.5\ngini = 0.775\nsamples = 26\nvalue = [1, 0, 4, 0, 2, 0, 0, 5, 9, 5]"] ;
212 -> 224 ;
225 [label="X[44] <= 12.5\ngini = 0.375\nsamples = 12\nvalue = [0, 0, 3, 0, 0, 0, 0, 0, 9, 0]"] ;
224 -> 225 ;
226 [label="gini = 0.0\nsamples = 9\nvalue = [0, 0, 0, 0, 0, 0, 0, 0, 9, 0]"] ;
225 -> 226 ;
227 [label="gini = 0.0\nsamples = 3\nvalue = [0, 0, 3, 0, 0, 0, 0, 0, 0, 0]"] ;
225 -> 227 ;
228 [label="X[33] <= 8.5\ngini = 0.714\nsamples = 14\nvalue = [1, 0, 1, 0, 2, 0, 0, 5, 0, 5]"] ;
224 -> 228 ;
229 [label="gini = 0.0\nsamples = 5\nvalue = [0, 0, 0, 0, 0, 0, 0, 0, 0, 5]"] ;
228 -> 229 ;
230 [label="X[38] <= 14.0\ngini = 0.617\nsamples = 9\nvalue = [1, 0, 1, 0, 2, 0, 0, 5, 0, 0]"] ;
228 -> 230 ;
231 [label="gini = 0.0\nsamples = 5\nvalue = [0, 0, 0, 0, 0, 0, 0, 5, 0, 0]"] ;
230 -> 231 ;
232 [label="X[18] <= 2.0\ngini = 0.625\nsamples = 4\nvalue = [1, 0, 1, 0, 2, 0, 0, 0, 0, 0]"] ;
230 -> 232 ;
233 [label="X[19] <= 8.0\ngini = 0.5\nsamples = 2\nvalue = [1, 0, 1, 0, 0, 0, 0, 0, 0, 0]"] ;
232 -> 233 ;
234 [label="gini = 0.0\nsamples = 1\nvalue = [0, 0, 1, 0, 0, 0, 0, 0, 0, 0]"] ;
233 -> 234 ;
235 [label="gini = 0.0\nsamples = 1\nvalue = [1, 0, 0, 0, 0, 0, 0, 0, 0, 0]"] ;
233 -> 235 ;
236 [label="gini = 0.0\nsamples = 2\nvalue = [0, 0, 0, 0, 2, 0, 0, 0, 0, 0]"] ;
232 -> 236 ;
237 [label="X[15] <= 15.5\ngini = 0.645\nsamples = 264\nvalue = [1, 86, 21, 16, 2, 0, 1, 3, 129, 5]"] ;
211 -> 237 ;
238 [label="X[13] <= 2.5\ngini = 0.357\nsamples = 147\nvalue = [1, 5, 4, 11, 0, 0, 1, 3, 117, 5]"] ;
237 -> 238 ;
239 [label="X[0] <= 5.0\ngini = 0.773\nsamples = 16\nvalue = [0, 2, 2, 6, 0, 0, 1, 2, 3, 0]"] ;
238 -> 239 ;
240 [label="X[8] <= 9.5\ngini = 0.719\nsamples = 8\nvalue = [0, 2, 0, 0, 0, 0, 1, 2, 3, 0]"] ;
239 -> 240 ;
241 [label="gini = 0.0\nsamples = 3\nvalue = [0, 0, 0, 0, 0, 0, 0, 0, 3, 0]"] ;
240 -> 241 ;
242 [label="X[36] <= 1.0\ngini = 0.64\nsamples = 5\nvalue = [0, 2, 0, 0, 0, 0, 1, 2, 0, 0]"] ;
240 -> 242 ;
243 [label="gini = 0.0\nsamples = 2\nvalue = [0, 0, 0, 0, 0, 0, 0, 2, 0, 0]"] ;
242 -> 243 ;
244 [label="X[42] <= 5.5\ngini = 0.444\nsamples = 3\nvalue = [0, 2, 0, 0, 0, 0, 1, 0, 0, 0]"] ;
242 -> 244 ;
245 [label="gini = 0.0\nsamples = 1\nvalue = [0, 0, 0, 0, 0, 0, 1, 0, 0, 0]"] ;
244 -> 245 ;
246 [label="gini = 0.0\nsamples = 2\nvalue = [0, 2, 0, 0, 0, 0, 0, 0, 0, 0]"] ;
244 -> 246 ;
247 [label="X[36] <= 15.0\ngini = 0.375\nsamples = 8\nvalue = [0, 0, 2, 6, 0, 0, 0, 0, 0, 0]"] ;
239 -> 247 ;
248 [label="gini = 0.0\nsamples = 6\nvalue = [0, 0, 0, 6, 0, 0, 0, 0, 0, 0]"] ;
247 -> 248 ;
249 [label="gini = 0.0\nsamples = 2\nvalue = [0, 0, 2, 0, 0, 0, 0, 0, 0, 0]"] ;
247 -> 249 ;
250 [label="X[29] <= 3.5\ngini = 0.239\nsamples = 131\nvalue = [1, 3, 2, 5, 0, 0, 0, 1, 114, 5]"] ;
238 -> 250 ;
251 [label="X[16] <= 4.0\ngini = 0.166\nsamples = 125\nvalue = [0, 3, 2, 3, 0, 0, 0, 0, 114, 3]"] ;
250 -> 251 ;
252 [label="X[37] <= 14.0\ngini = 0.48\nsamples = 5\nvalue = [0, 3, 0, 0, 0, 0, 0, 0, 2, 0]"] ;
251 -> 252 ;
253 [label="gini = 0.0\nsamples = 2\nvalue = [0, 0, 0, 0, 0, 0, 0, 0, 2, 0]"] ;
252 -> 253 ;
254 [label="gini = 0.0\nsamples = 3\nvalue = [0, 3, 0, 0, 0, 0, 0, 0, 0, 0]"] ;
252 -> 254 ;
255 [label="X[36] <= 2.5\ngini = 0.127\nsamples = 120\nvalue = [0, 0, 2, 3, 0, 0, 0, 0, 112, 3]"] ;
251 -> 255 ;
256 [label="X[37] <= 9.5\ngini = 0.498\nsamples = 15\nvalue = [0, 0, 0, 2, 0, 0, 0, 0, 10, 3]"] ;
255 -> 256 ;
257 [label="X[13] <= 13.0\ngini = 0.48\nsamples = 5\nvalue = [0, 0, 0, 2, 0, 0, 0, 0, 0, 3]"] ;
256 -> 257 ;
258 [label="gini = 0.0\nsamples = 2\nvalue = [0, 0, 0, 2, 0, 0, 0, 0, 0, 0]"] ;
257 -> 258 ;
259 [label="gini = 0.0\nsamples = 3\nvalue = [0, 0, 0, 0, 0, 0, 0, 0, 0, 3]"] ;
257 -> 259 ;
260 [label="gini = 0.0\nsamples = 10\nvalue = [0, 0, 0, 0, 0, 0, 0, 0, 10, 0]"] ;
256 -> 260 ;
261 [label="X[26] <= 5.0\ngini = 0.056\nsamples = 105\nvalue = [0, 0, 2, 1, 0, 0, 0, 0, 102, 0]"] ;
255 -> 261 ;
262 [label="gini = 0.0\nsamples = 1\nvalue = [0, 0, 0, 1, 0, 0, 0, 0, 0, 0]"] ;
261 -> 262 ;
263 [label="X[20] <= 8.5\ngini = 0.038\nsamples = 104\nvalue = [0, 0, 2, 0, 0, 0, 0, 0, 102, 0]"] ;
261 -> 263 ;
264 [label="X[21] <= 15.5\ngini = 0.5\nsamples = 2\nvalue = [0, 0, 1, 0, 0, 0, 0, 0, 1, 0]"] ;
263 -> 264 ;
265 [label="gini = 0.0\nsamples = 1\nvalue = [0, 0, 1, 0, 0, 0, 0, 0, 0, 0]"] ;
264 -> 265 ;
266 [label="gini = 0.0\nsamples = 1\nvalue = [0, 0, 0, 0, 0, 0, 0, 0, 1, 0]"] ;
264 -> 266 ;
267 [label="X[27] <= 4.5\ngini = 0.019\nsamples = 102\nvalue = [0, 0, 1, 0, 0, 0, 0, 0, 101, 0]"] ;
263 -> 267 ;
268 [label="X[27] <= 3.0\ngini = 0.444\nsamples = 3\nvalue = [0, 0, 1, 0, 0, 0, 0, 0, 2, 0]"] ;
267 -> 268 ;
269 [label="gini = 0.0\nsamples = 2\nvalue = [0, 0, 0, 0, 0, 0, 0, 0, 2, 0]"] ;
268 -> 269 ;
270 [label="gini = 0.0\nsamples = 1\nvalue = [0, 0, 1, 0, 0, 0, 0, 0, 0, 0]"] ;
268 -> 270 ;
271 [label="gini = 0.0\nsamples = 99\nvalue = [0, 0, 0, 0, 0, 0, 0, 0, 99, 0]"] ;
267 -> 271 ;
272 [label="X[16] <= 15.5\ngini = 0.722\nsamples = 6\nvalue = [1, 0, 0, 2, 0, 0, 0, 1, 0, 2]"] ;
250 -> 272 ;
273 [label="gini = 0.0\nsamples = 2\nvalue = [0, 0, 0, 2, 0, 0, 0, 0, 0, 0]"] ;
272 -> 273 ;
274 [label="X[40] <= 3.5\ngini = 0.625\nsamples = 4\nvalue = [1, 0, 0, 0, 0, 0, 0, 1, 0, 2]"] ;
272 -> 274 ;
275 [label="X[35] <= 0.5\ngini = 0.5\nsamples = 2\nvalue = [1, 0, 0, 0, 0, 0, 0, 1, 0, 0]"] ;
274 -> 275 ;
276 [label="gini = 0.0\nsamples = 1\nvalue = [0, 0, 0, 0, 0, 0, 0, 1, 0, 0]"] ;
275 -> 276 ;
277 [label="gini = 0.0\nsamples = 1\nvalue = [1, 0, 0, 0, 0, 0, 0, 0, 0, 0]"] ;
275 -> 277 ;
278 [label="gini = 0.0\nsamples = 2\nvalue = [0, 0, 0, 0, 0, 0, 0, 0, 0, 2]"] ;
274 -> 278 ;
279 [label="X[33] <= 6.5\ngini = 0.487\nsamples = 117\nvalue = [0, 81, 17, 5, 2, 0, 0, 0, 12, 0]"] ;
237 -> 279 ;
280 [label="X[22] <= 2.5\ngini = 0.265\nsamples = 20\nvalue = [0, 0, 17, 1, 0, 0, 0, 0, 2, 0]"] ;
279 -> 280 ;
281 [label="gini = 0.0\nsamples = 17\nvalue = [0, 0, 17, 0, 0, 0, 0, 0, 0, 0]"] ;
280 -> 281 ;
282 [label="X[32] <= 5.0\ngini = 0.444\nsamples = 3\nvalue = [0, 0, 0, 1, 0, 0, 0, 0, 2, 0]"] ;
280 -> 282 ;
283 [label="gini = 0.0\nsamples = 1\nvalue = [0, 0, 0, 1, 0, 0, 0, 0, 0, 0]"] ;
282 -> 283 ;
284 [label="gini = 0.0\nsamples = 2\nvalue = [0, 0, 0, 0, 0, 0, 0, 0, 2, 0]"] ;
282 -> 284 ;
285 [label="X[6] <= 13.5\ngini = 0.29\nsamples = 97\nvalue = [0, 81, 0, 4, 2, 0, 0, 0, 10, 0]"] ;
279 -> 285 ;
286 [label="X[38] <= 9.0\ngini = 0.186\nsamples = 90\nvalue = [0, 81, 0, 2, 2, 0, 0, 0, 5, 0]"] ;
285 -> 286 ;
287 [label="X[36] <= 3.5\ngini = 0.56\nsamples = 5\nvalue = [0, 1, 0, 1, 0, 0, 0, 0, 3, 0]"] ;
286 -> 287 ;
288 [label="gini = 0.0\nsamples = 1\nvalue = [0, 0, 0, 1, 0, 0, 0, 0, 0, 0]"] ;
287 -> 288 ;
289 [label="X[44] <= 4.5\ngini = 0.375\nsamples = 4\nvalue = [0, 1, 0, 0, 0, 0, 0, 0, 3, 0]"] ;
287 -> 289 ;
290 [label="gini = 0.0\nsamples = 1\nvalue = [0, 1, 0, 0, 0, 0, 0, 0, 0, 0]"] ;
289 -> 290 ;
291 [label="gini = 0.0\nsamples = 3\nvalue = [0, 0, 0, 0, 0, 0, 0, 0, 3, 0]"] ;
289 -> 291 ;
292 [label="X[30] <= 7.5\ngini = 0.113\nsamples = 85\nvalue = [0, 80, 0, 1, 2, 0, 0, 0, 2, 0]"] ;
286 -> 292 ;
293 [label="X[14] <= 5.5\ngini = 0.07\nsamples = 83\nvalue = [0, 80, 0, 1, 0, 0, 0, 0, 2, 0]"] ;
292 -> 293 ;
294 [label="gini = 0.0\nsamples = 1\nvalue = [0, 0, 0, 1, 0, 0, 0, 0, 0, 0]"] ;
293 -> 294 ;
295 [label="X[27] <= 7.0\ngini = 0.048\nsamples = 82\nvalue = [0, 80, 0, 0, 0, 0, 0, 0, 2, 0]"] ;
293 -> 295 ;
296 [label="gini = 0.0\nsamples = 1\nvalue = [0, 0, 0, 0, 0, 0, 0, 0, 1, 0]"] ;
295 -> 296 ;
297 [label="X[8] <= 9.0\ngini = 0.024\nsamples = 81\nvalue = [0, 80, 0, 0, 0, 0, 0, 0, 1, 0]"] ;
295 -> 297 ;
298 [label="X[26] <= 15.5\ngini = 0.5\nsamples = 2\nvalue = [0, 1, 0, 0, 0, 0, 0, 0, 1, 0]"] ;
297 -> 298 ;
299 [label="gini = 0.0\nsamples = 1\nvalue = [0, 0, 0, 0, 0, 0, 0, 0, 1, 0]"] ;
298 -> 299 ;
300 [label="gini = 0.0\nsamples = 1\nvalue = [0, 1, 0, 0, 0, 0, 0, 0, 0, 0]"] ;
298 -> 300 ;
301 [label="gini = 0.0\nsamples = 79\nvalue = [0, 79, 0, 0, 0, 0, 0, 0, 0, 0]"] ;
297 -> 301 ;
302 [label="gini = 0.0\nsamples = 2\nvalue = [0, 0, 0, 0, 2, 0, 0, 0, 0, 0]"] ;
292 -> 302 ;
303 [label="X[31] <= 5.0\ngini = 0.408\nsamples = 7\nvalue = [0, 0, 0, 2, 0, 0, 0, 0, 5, 0]"] ;
285 -> 303 ;
304 [label="gini = 0.0\nsamples = 2\nvalue = [0, 0, 0, 2, 0, 0, 0, 0, 0, 0]"] ;
303 -> 304 ;
305 [label="gini = 0.0\nsamples = 5\nvalue = [0, 0, 0, 0, 0, 0, 0, 0, 5, 0]"] ;
303 -> 305 ;
306 [label="X[9] <= 9.5\ngini = 0.402\nsamples = 145\nvalue = [2, 21, 1, 1, 110, 1, 3, 2, 3, 1]"] ;
158 -> 306 ;
307 [label="X[0] <= 1.5\ngini = 0.088\nsamples = 110\nvalue = [0, 3, 0, 0, 105, 0, 1, 0, 0, 1]"] ;
306 -> 307 ;
308 [label="X[3] <= 12.5\ngini = 0.037\nsamples = 107\nvalue = [0, 1, 0, 0, 105, 0, 0, 0, 0, 1]"] ;
307 -> 308 ;
309 [label="X[25] <= 8.5\ngini = 0.019\nsamples = 106\nvalue = [0, 1, 0, 0, 105, 0, 0, 0, 0, 0]"] ;
308 -> 309 ;
310 [label="gini = 0.0\nsamples = 1\nvalue = [0, 1, 0, 0, 0, 0, 0, 0, 0, 0]"] ;
309 -> 310 ;
311 [label="gini = 0.0\nsamples = 105\nvalue = [0, 0, 0, 0, 105, 0, 0, 0, 0, 0]"] ;
309 -> 311 ;
312 [label="gini = 0.0\nsamples = 1\nvalue = [0, 0, 0, 0, 0, 0, 0, 0, 0, 1]"] ;
308 -> 312 ;
313 [label="X[37] <= 11.5\ngini = 0.444\nsamples = 3\nvalue = [0, 2, 0, 0, 0, 0, 1, 0, 0, 0]"] ;
307 -> 313 ;
314 [label="gini = 0.0\nsamples = 1\nvalue = [0, 0, 0, 0, 0, 0, 1, 0, 0, 0]"] ;
313 -> 314 ;
315 [label="gini = 0.0\nsamples = 2\nvalue = [0, 2, 0, 0, 0, 0, 0, 0, 0, 0]"] ;
313 -> 315 ;
316 [label="X[20] <= 14.5\ngini = 0.696\nsamples = 35\nvalue = [2, 18, 1, 1, 5, 1, 2, 2, 3, 0]"] ;
306 -> 316 ;
317 [label="X[1] <= 6.5\ngini = 0.836\nsamples = 16\nvalue = [2, 1, 1, 1, 5, 1, 2, 2, 1, 0]"] ;
316 -> 317 ;
318 [label="X[25] <= 11.5\ngini = 0.449\nsamples = 7\nvalue = [0, 1, 1, 0, 5, 0, 0, 0, 0, 0]"] ;
317 -> 318 ;
319 [label="X[12] <= 0.5\ngini = 0.5\nsamples = 2\nvalue = [0, 1, 1, 0, 0, 0, 0, 0, 0, 0]"] ;
318 -> 319 ;
320 [label="gini = 0.0\nsamples = 1\nvalue = [0, 0, 1, 0, 0, 0, 0, 0, 0, 0]"] ;
319 -> 320 ;
321 [label="gini = 0.0\nsamples = 1\nvalue = [0, 1, 0, 0, 0, 0, 0, 0, 0, 0]"] ;
319 -> 321 ;
322 [label="gini = 0.0\nsamples = 5\nvalue = [0, 0, 0, 0, 5, 0, 0, 0, 0, 0]"] ;
318 -> 322 ;
323 [label="X[7] <= 12.5\ngini = 0.815\nsamples = 9\nvalue = [2, 0, 0, 1, 0, 1, 2, 2, 1, 0]"] ;
317 -> 323 ;
324 [label="gini = 0.0\nsamples = 2\nvalue = [0, 0, 0, 0, 0, 0, 0, 2, 0, 0]"] ;
323 -> 324 ;
325 [label="X[8] <= 14.5\ngini = 0.776\nsamples = 7\nvalue = [2, 0, 0, 1, 0, 1, 2, 0, 1, 0]"] ;
323 -> 325 ;
326 [label="X[8] <= 9.0\ngini = 0.72\nsamples = 5\nvalue = [0, 0, 0, 1, 0, 1, 2, 0, 1, 0]"] ;
325 -> 326 ;
327 [label="X[35] <= 1.0\ngini = 0.667\nsamples = 3\nvalue = [0, 0, 0, 1, 0, 1, 0, 0, 1, 0]"] ;
326 -> 327 ;
328 [label="gini = 0.0\nsamples = 1\nvalue = [0, 0, 0, 0, 0, 0, 0, 0, 1, 0]"] ;
327 -> 328 ;
329 [label="X[14] <= 8.0\ngini = 0.5\nsamples = 2\nvalue = [0, 0, 0, 1, 0, 1, 0, 0, 0, 0]"] ;
327 -> 329 ;
330 [label="gini = 0.0\nsamples = 1\nvalue = [0, 0, 0, 1, 0, 0, 0, 0, 0, 0]"] ;
329 -> 330 ;
331 [label="gini = 0.0\nsamples = 1\nvalue = [0, 0, 0, 0, 0, 1, 0, 0, 0, 0]"] ;
329 -> 331 ;
332 [label="gini = 0.0\nsamples = 2\nvalue = [0, 0, 0, 0, 0, 0, 2, 0, 0, 0]"] ;
326 -> 332 ;
333 [label="gini = 0.0\nsamples = 2\nvalue = [2, 0, 0, 0, 0, 0, 0, 0, 0, 0]"] ;
325 -> 333 ;
334 [label="X[8] <= 11.0\ngini = 0.188\nsamples = 19\nvalue = [0, 17, 0, 0, 0, 0, 0, 0, 2, 0]"] ;
316 -> 334 ;
335 [label="gini = 0.0\nsamples = 2\nvalue = [0, 0, 0, 0, 0, 0, 0, 0, 2, 0]"] ;
334 -> 335 ;
336 [label="gini = 0.0\nsamples = 17\nvalue = [0, 17, 0, 0, 0, 0, 0, 0, 0, 0]"] ;
334 -> 336 ;
}
